<?xml version="1.0"?>
<opencv_storage>
<stage17>
  <maxWeakCount>15</maxWeakCount>
  <stageThreshold>-9.1939067840576172e-01</stageThreshold>
  <weakClassifiers>
    <_>
      <internalNodes>
        0 -1 5238271 -6.7346863943384960e-06</internalNodes>
      <leafValues>
        5.5600816011428833e-01 -2.3624595999717712e-01</leafValues></_>
    <_>
      <internalNodes>
        0 -1 4432975 2.7637933380901814e-03</internalNodes>
      <leafValues>
        -7.0044678449630737e-01 2.4122278392314911e-01</leafValues></_>
    <_>
      <internalNodes>
        0 -1 5948095 -6.7992473486810923e-04</internalNodes>
      <leafValues>
        5.5203223228454590e-01 -2.3660437762737274e-01</leafValues></_>
    <_>
      <internalNodes>
        0 -1 4789115 5.7788444682955742e-03</internalNodes>
      <leafValues>
        1.3524138927459717e-01 -8.7380564212799072e-01</leafValues></_>
    <_>
      <internalNodes>
        0 -1 5272842 7.2498689405620098e-05</internalNodes>
      <leafValues>
        1.9127708673477173e-01 -5.9180414676666260e-01</leafValues></_>
    <_>
      <internalNodes>
        0 -1 4812893 -3.5861874930560589e-03</internalNodes>
      <leafValues>
        -7.6934826374053955e-01 1.5250894427299500e-01</leafValues></_>
    <_>
      <internalNodes>
        0 -1 5942024 -5.5074674310162663e-04</internalNodes>
      <leafValues>
        4.2164325714111328e-01 -3.4422478079795837e-01</leafValues></_>
    <_>
      <internalNodes>
        0 -1 6040131 -2.6265141787007451e-04</internalNodes>
      <leafValues>
        4.8687601089477539e-01 -2.6376450061798096e-01</leafValues></_>
    <_>
      <internalNodes>
        0 -1 779606 6.4351023174822330e-03</internalNodes>
      <leafValues>
        -3.7536469101905823e-01 3.8453388214111328e-01</leafValues></_>
    <_>
      <internalNodes>
        0 -1 6111848 -1.0602168738842010e-02</internalNodes>
      <leafValues>
        -9.6280235052108765e-01 1.9178135693073273e-01</leafValues></_>
    <_>
      <internalNodes>
        0 -1 6045427 -5.5068079382181168e-04</internalNodes>
      <leafValues>
        4.4591167569160461e-01 -3.5190469026565552e-01</leafValues></_>
    <_>
      <internalNodes>
        0 -1 4352261 -7.0966221392154694e-03</internalNodes>
      <leafValues>
        5.4189199209213257e-01 -2.6335626840591431e-01</leafValues></_>
    <_>
      <internalNodes>
        0 -1 6127177 3.2360170735046268e-05</internalNodes>
      <leafValues>
        2.6423850655555725e-01 -5.4400569200515747e-01</leafValues></_>
    <_>
      <internalNodes>
        0 -1 6047794 -3.8310256786644459e-04</internalNodes>
      <leafValues>
        6.8721526861190796e-01 -2.0577406883239746e-01</leafValues></_>
    <_>
      <internalNodes>
        0 -1 4352125 -2.2748862393200397e-03</internalNodes>
      <leafValues>
        5.3843641281127930e-01 -2.2195991873741150e-01</leafValues></_></weakClassifiers></stage17>
</opencv_storage>
